{
  "layerSizes": [
    5,
    10,
    4,
    1
  ],
  "weights": [
    [
      [
        -0.12591910787202376,
        0.1986263055347961,
        0.584992608793542,
        0.9027447895625349,
        -0.41500507919816532
      ],
      [
        0.15864421574335741,
        0.13133940060219707,
        -0.45626025528472858,
        0.95982868874437588,
        -0.014655733953535477
      ],
      [
        -0.69673960269276969,
        -0.21566351280345741,
        0.44947654542023163,
        0.47583003038346305,
        -0.3456749615006498
      ],
      [
        -0.9991292245682,
        0.24149197118426291,
        -0.51586486842290724,
        -0.97459871134469223,
        0.41473725597129074
      ],
      [
        -0.77489890054562083,
        -0.94535614454436867,
        -0.39276290191000462,
        0.3476208613010221,
        -0.2092295527501169
      ],
      [
        0.91946403119688114,
        -0.74807494215111947,
        -0.51486714627354746,
        0.025345319428176305,
        0.96982931437428532
      ],
      [
        0.16599745543952915,
        0.14958141518271595,
        0.93708132297596025,
        0.71007075240373174,
        0.58943929876640411
      ],
      [
        0.70462959152861937,
        -0.38760743168536915,
        0.47872986620232916,
        0.18188933244994354,
        0.50431802100703038
      ],
      [
        -0.41793032708481437,
        0.68980919369021865,
        0.572710409561503,
        -0.896108326453766,
        -0.19997032508252666
      ],
      [
        0.16211579328501391,
        -0.15132039652733154,
        0.78388904956350514,
        -0.991280210200362,
        0.67764369010815573
      ]
    ],
    [
      [
        0.95680497957244737,
        0.81102335444233531,
        -0.659431046647686,
        -0.71184196961663759,
        -0.95963534245250526,
        -0.266580791802416,
        -0.21457822118633341,
        0.277915077879054,
        -0.18549282717774285,
        0.30434036222488636
      ],
      [
        0.50474362331663425,
        0.2386905286641281,
        -0.70919997697193171,
        0.652052672417859,
        -0.36363263491710307,
        -0.67922830287331171,
        -0.19765531234334,
        -0.90245704720842512,
        0.043211767004435853,
        -0.44967416555139894
      ],
      [
        -0.23444881161416364,
        0.10096125355966445,
        -0.31712869522959397,
        0.81557235765064706,
        0.45189538293140719,
        0.86224576451920232,
        0.8632295261431624,
        0.12114971090161686,
        -0.63875286636816009,
        0.1572776656398911
      ],
      [
        0.4067302576297569,
        0.75326577283128437,
        0.7784159443240688,
        0.50719881314188187,
        0.41647156114525696,
        -0.42797208923286389,
        -0.25468934199525484,
        -0.603532446363723,
        -0.77359705687202374,
        -0.39783739084277181
      ]
    ],
    [
      [
        0.37997661874628474,
        -0.93203321375513137,
        -0.13479885511789413,
        -0.49077034811059495
      ]
    ]
  ],
  "biases": [
    [
      0.64625092486210667,
      -0.43595792233755715,
      0.27055463254011913,
      0.17577185164008835,
      0.57627281899390415,
      -0.744418285668091,
      -0.85486381680465484,
      0.84776776649419583,
      0.41666978197948534,
      -0.37711291079274978
    ],
    [
      -0.46964893465379665,
      -0.6901674250560661,
      0.19056731611051014,
      0.47193772507456022
    ],
    [
      0.27772931069029938
    ]
  ],
  "Id": "bcfdd024-3737-4bbb-ade5-335633b1db47"
}